12 128
11 -0.04960286 -0.024439856 0.11705386 -0.002449247 -0.0725584 -0.16702369 0.12834941 0.10822457 -0.09780596 0.089973405 0.31749997 0.08464119 -0.11629351 0.06867763 -0.12557787 -0.026712086 0.031176962 0.09361468 -0.12703407 -0.016571535 0.19723246 0.0847049 0.12869121 -0.040188164 0.026249288 -0.03391497 -0.185079 0.077904 -0.058168832 -0.082993306 -0.20663185 -0.00790221 0.088579014 -0.04586301 -0.024415161 0.014624897 0.27856106 -0.04424233 0.18244404 -0.03243263 -0.00047145164 0.15610847 -0.0784106 -0.18735304 -0.0148668755 0.10371759 -0.07546611 0.008298054 0.03969457 0.056929704 0.021364747 0.09441788 -0.023560032 -0.031168124 0.26794827 -0.011800212 0.14964001 -0.18334784 0.03359973 0.05221532 0.11685688 -0.13433304 -0.08952704 0.009430412 0.0077049495 -0.030004248 0.13633765 0.19790372 -0.08536306 0.0034314378 0.060849328 0.12779258 0.0014193447 -0.13415548 -0.010382414 -0.025671965 0.12642874 0.03731938 -0.023937127 0.031327646 0.009753212 0.014329497 -0.0075968783 0.18957503 -0.014213564 0.07499042 0.22270128 -0.093979895 0.07597636 0.22378248 -0.028888756 -0.06333247 -0.10820243 -0.093565345 0.19235036 -0.031119037 -0.25099528 -0.2512516 0.023050575 0.08429744 -0.16733491 0.1464731 0.16456792 0.00772128 0.10485863 -0.028972104 0.03665303 -0.012359705 0.015825523 -0.17317942 0.005041066 -0.017901901 -0.09092491 -0.040735923 0.07848243 0.0987607 0.039727386 0.24239197 -0.034678433 -0.001095425 -0.034156274 0.0076304395 0.048293024 -0.099147655 -0.027418884 0.030221056 -0.1197665 0.061408915
6 -0.032798905 0.010053995 0.0990888 -0.06552384 -0.016379338 -0.1369578 0.123059645 0.080443464 -0.026374584 0.14365044 0.2840013 0.12736803 -0.04546314 0.033319857 -0.10699203 0.0137681095 -0.0020523472 0.116234966 -0.057070527 0.042305425 0.16793515 0.072151 0.09910465 -0.08090359 -0.0013089621 -0.0318102 -0.16931523 0.07532077 0.028928183 -0.009916839 -0.14760314 0.019355057 0.040379394 -0.0020999236 -0.05531567 -0.0011710484 0.23348844 0.009325397 0.1934517 -0.027271658 0.06534446 0.13942248 -0.018856432 -0.20183657 -0.018151848 0.13216671 -0.047863316 -0.05788497 -0.00418048 -0.0005990071 0.075892024 0.0658867 -0.038828842 -0.040470287 0.22296737 0.0008569465 0.1348732 -0.13666248 0.059055932 -0.0533272 0.110253245 -0.13960493 -0.09375917 0.021643795 0.038859177 -0.07566214 0.12166738 0.16009161 -0.06190772 0.0024978954 -0.0044085737 0.13214707 0.01573482 -0.041876182 -0.052727383 -0.046786472 0.096823104 0.07958474 -0.023923004 0.08960758 0.00085130986 0.010207547 -0.085596934 0.1225415 0.06142559 0.06927806 0.21021251 -0.10109861 0.10614489 0.22026701 -0.06541306 -0.07813538 -0.1472286 -0.11421283 0.10792899 -0.081655316 -0.15143731 -0.22135448 0.036976058 0.063664556 -0.12847121 0.1416793 0.14758314 -0.073206306 0.006303252 0.00083213276 0.0033636284 -0.026643196 0.014519006 -0.10282016 0.018285878 0.035811257 -0.09952229 -0.061026342 0.060387556 0.07229937 0.009856675 0.21297361 -0.013805625 -0.013398749 -0.064941235 0.016288366 0.006711415 -0.06190286 -0.08023326 0.0062454687 -0.11915957 0.017049411
14 -0.051311135 -0.01718087 0.035634574 -0.09071403 0.020590913 -0.16718613 0.20525023 0.09431033 -0.1038417 0.23959024 0.38289207 0.17969802 -0.13207717 0.10187841 -0.07186002 0.06830445 0.028450835 0.13906513 -0.11632507 0.13035852 0.26579794 0.12034275 0.091876835 -0.067852296 -0.00010411817 -0.094885774 -0.26553142 0.07448274 0.011704828 -0.059168335 -0.221478 -0.055323247 0.13244638 -0.010602189 -0.102514364 0.038022134 0.34603733 -0.031950533 0.2864591 0.020059308 0.09207916 0.16105683 0.048007995 -0.29101658 -0.11161614 0.21919234 -0.062249914 -0.06333682 0.03448501 -0.03325232 0.11649718 0.12867892 0.030048495 -0.10716305 0.32198164 0.059587162 0.20181932 -0.21770729 0.13036543 -0.058779575 0.17980812 -0.19751312 -0.18315372 0.07790002 0.052798297 -0.08943782 0.23681419 0.26218623 -0.17094882 0.027688973 0.055728104 0.19081676 0.043053016 -0.05059558 -0.055591702 -0.06934662 0.04714509 0.077431455 -0.007412961 0.1670424 0.092562415 -0.040693507 -0.17584963 0.21858422 0.06507269 0.10728574 0.28699285 -0.12321498 0.1679527 0.2696389 -0.03739552 -0.110210426 -0.19174972 -0.16173448 0.17666122 -0.097906314 -0.2755977 -0.32486945 -0.003107442 0.04902106 -0.12516415 0.21431541 0.21638007 -0.100974776 0.022386022 0.03734352 0.096651286 -0.02579126 0.046850838 -0.18456684 0.023290386 0.10499137 -0.12886438 -0.15010233 0.130373 0.042887747 -0.01822971 0.32585928 -0.027268693 -0.042084787 -0.10598881 0.07060846 -0.026797965 -0.049012486 -0.1203478 0.055202488 -0.10113978 0.041624658
3 -0.021895261 -0.011261886 0.052172832 -0.0071919924 -0.023573773 -0.07773981 0.052177556 0.042389933 -0.039339583 0.048775632 0.1473483 0.044080276 -0.04316217 0.022926988 -0.052127004 -0.008856708 0.0053122127 0.045184337 -0.05602744 0.0042370926 0.09034513 0.041582942 0.052378222 -0.019377943 0.0036987462 -0.011240322 -0.09008169 0.03579218 -0.022581054 -0.029262338 -0.09112489 -0.007929007 0.034324255 -0.009799681 -0.0107165845 0.0035988644 0.12267245 -0.021432135 0.092392385 -0.002224566 0.007826716 0.06747806 -0.02198879 -0.08292482 -0.018892804 0.053340062 -0.023518924 -0.00395811 0.0148595795 0.0077054524 0.02588659 0.03598895 -0.00927569 -0.01562985 0.1157571 0.002060103 0.06850519 -0.08392272 0.014259751 0.017050693 0.05973925 -0.06841859 -0.04079655 0.010529105 0.011520595 -0.024437035 0.068586044 0.09062512 -0.032572895 -0.0013950453 0.021063097 0.051491726 -0.0038097904 -0.05527805 -0.010754961 -0.019973805 0.05183249 0.01564977 -0.0068182503 0.026543057 0.005990121 0.0012754588 -0.00914685 0.087314084 -0.00094635796 0.041234635 0.09451523 -0.036950048 0.037872177 0.10164174 -0.012831283 -0.025347592 -0.056676645 -0.038797073 0.08346248 -0.028463382 -0.11165113 -0.11732522 0.011331519 0.030025776 -0.072942406 0.060323752 0.07953404 -0.005946159 0.027988624 -0.009939688 0.020204065 -0.012509841 0.013368683 -0.07549412 0.0058946493 -0.0029678687 -0.035850737 -0.022943212 0.03634262 0.039558534 0.0038069172 0.10937698 -0.013454903 -0.010271363 -0.028347408 0.006954215 0.016586332 -0.03358335 -0.026377486 0.0075400327 -0.054275427 0.021141862
10 -0.025214154 -0.01662344 0.037625123 -0.018138079 -0.02396198 -0.070420325 0.054664128 0.03912451 -0.04478237 0.049522236 0.1386319 0.04907297 -0.052119263 0.025813289 -0.042827476 -0.009761463 0.011995212 0.047191393 -0.043085556 0.001122056 0.08026278 0.02937704 0.047512073 -0.011976097 0.01138183 -0.013559247 -0.077153556 0.027337814 -0.006927665 -0.035210807 -0.08842791 -0.007974334 0.036156315 -0.015865857 -0.016782211 0.013758436 0.11584893 -0.015638433 0.08489889 -0.01469232 0.016673094 0.06943218 -0.026293846 -0.081818335 -0.0059244656 0.045529805 -0.033047028 -0.012141694 0.020566259 0.012139695 0.026474847 0.03272199 -0.0019115763 -0.016675726 0.111208916 0.0041609923 0.058091767 -0.082607865 0.024201056 0.012943988 0.059130196 -0.055441227 -0.043708988 0.017437395 0.00023816175 -0.015475265 0.06362151 0.08654998 -0.034524046 -0.0025968864 0.026443018 0.047724623 0.0036663448 -0.05089315 -0.013850467 -0.006847953 0.04139915 0.021832595 -0.00065661897 0.03366154 0.0038096462 -0.0017128722 -0.011159007 0.08029111 0.0018302606 0.025540128 0.09645018 -0.045116052 0.045896377 0.08992356 -0.014587537 -0.028811675 -0.0525599 -0.043149266 0.07839018 -0.020058194 -0.102979615 -0.10703405 0.012106923 0.030993862 -0.06270251 0.07169627 0.06557641 -0.009293207 0.039804257 0.0009179188 0.0199304 -0.014812217 0.010052983 -0.07049959 0.011405277 0.0062814564 -0.037881564 -0.025208894 0.033752568 0.02976468 0.009435428 0.10145178 -0.0068287738 0.0034762805 -0.021153277 0.011315352 0.005923327 -0.03214727 -0.026455455 0.0060836854 -0.05123247 0.0146438945
1 -0.01672181 -0.012630047 0.05431477 -0.023585359 -0.016830811 -0.07013689 0.061753556 0.03944485 -0.04385945 0.06229975 0.15827255 0.047822893 -0.057961382 0.034602597 -0.060871575 -0.0073268944 0.008718565 0.045529325 -0.059477005 0.0070008785 0.099247254 0.03906743 0.061102662 -0.025182106 0.0031144368 -0.016131565 -0.102697074 0.032524493 -0.018425578 -0.033770453 -0.097856656 -7.920923e-05 0.038948417 -0.009499407 -0.015789764 0.002019807 0.14168215 -0.009027759 0.09865723 -0.0039821467 0.021129709 0.06994111 -0.024695624 -0.10074001 -0.018272225 0.05954188 -0.023902787 -0.015151264 0.008376998 0.012114572 0.024777036 0.04648746 -0.009938644 -0.024020242 0.1304759 0.0044425516 0.08375711 -0.09225329 0.027249034 0.007825613 0.069385946 -0.07668414 -0.045421742 0.020270526 0.008189302 -0.024948891 0.07956743 0.09548388 -0.05170751 -0.0018141444 0.021280482 0.067535564 0.009916173 -0.049625415 -0.014622373 -0.017151544 0.055027943 0.026832914 -0.015016472 0.028306091 0.011917545 0.006049028 -0.026812218 0.08103996 0.0020255314 0.04436867 0.11047216 -0.043406714 0.043963198 0.12030409 -0.024295282 -0.03433814 -0.06721589 -0.060451128 0.080892995 -0.029000174 -0.11977506 -0.1277556 0.004185924 0.03650267 -0.06621852 0.07488141 0.082573935 -0.012509514 0.039779436 -0.008702737 0.014825273 -0.01264265 0.018258268 -0.077949435 -0.0011972408 0.008463195 -0.04035903 -0.03983736 0.03674861 0.04686199 0.0016340268 0.12613432 -0.012838546 0.0005185035 -0.020276006 0.008606389 0.008104651 -0.031399366 -0.026994146 0.019475576 -0.06435974 0.031090854
9 -0.021201096 -0.012466789 0.044602226 -0.015678653 -0.014275326 -0.07159655 0.057488415 0.044319868 -0.029827595 0.052757118 0.14295022 0.042122494 -0.05115131 0.02866071 -0.054926474 0.002115084 0.0111336615 0.044867195 -0.043629467 0.019582877 0.09557004 0.03675525 0.051097747 -0.026367592 -0.0009088842 -0.014014688 -0.088265255 0.03164106 -0.012561261 -0.03107432 -0.08273673 -0.008443589 0.029464426 -0.005101782 -0.015771914 0.014947189 0.12843831 -0.0103258295 0.09751592 -0.012222165 0.008917099 0.070250444 -0.014003325 -0.095525555 -0.0071119443 0.05431644 -0.020906592 -0.009089473 0.0077398033 0.009396347 0.017665276 0.038500123 -0.0054466003 -0.013223771 0.124427095 -0.0022585108 0.070955426 -0.076420985 0.023198249 -0.0042388514 0.05696353 -0.07147593 -0.041756444 0.0072000786 0.014552782 -0.014314786 0.06715161 0.091501094 -0.043334335 0.008938653 0.023318827 0.052898582 0.0031751986 -0.039662406 -0.012781162 -0.01763969 0.044227775 0.022036228 -0.008032038 0.035030846 0.0071542254 -0.0024832943 -0.024408216 0.079075724 0.007338133 0.030887421 0.1044114 -0.045139354 0.045700442 0.10124079 -0.011966227 -0.038128175 -0.06414914 -0.051962014 0.08257502 -0.025397534 -0.110473745 -0.11297002 0.00536676 0.035841122 -0.07298306 0.07114173 0.066732675 -0.012540236 0.03438649 0.00263833 0.012309644 -0.013691515 0.003989108 -0.076610416 -0.0023580163 0.006693511 -0.043465804 -0.03559068 0.04226805 0.035892252 0.013240919 0.11061788 -0.011482825 -0.0103671625 -0.025578316 0.013353295 0.0057220976 -0.03375682 -0.022774449 0.011498313 -0.042261746 0.027838321
18 -0.0070136944 0.002492875 0.024479311 -0.0107611185 -0.012550431 -0.036108255 0.02001458 0.025585763 -0.017051276 0.018830823 0.05894119 0.024975816 -0.022095604 0.009471893 -0.021009808 -0.003048825 0.002885166 0.021226171 -0.023675747 0.010910892 0.041836724 0.008595983 0.027372621 -0.015796084 0.0029968715 -0.00428804 -0.042063236 0.012799418 0.00081365934 -0.015376746 -0.043826193 0.005808938 0.0139676 -0.009276462 -0.00088460214 0.0063557085 0.05729753 0.0018025781 0.032425787 -9.806754e-05 0.0070680236 0.033096228 -0.0075727263 -0.036419623 -0.0020617237 0.029204361 -0.0149824 -0.0072538485 0.0049131867 0.007817196 0.007106036 0.022860214 -0.0001938397 -0.0026063866 0.053419627 0.0071665905 0.029096685 -0.027736869 0.013423932 -0.0041566626 0.021012966 -0.030334951 -0.016127778 0.003952234 0.0022339185 -0.0032205675 0.036512107 0.037125982 -0.021906864 -0.0024198592 0.004634467 0.018726338 0.003318439 -0.022868542 -0.003282644 -0.0029898128 0.01800928 0.002894002 -0.002882933 0.0076667424 0.005780812 -0.0022436364 -0.004056204 0.03510578 0.0055368138 0.013009703 0.043124363 -0.012952537 0.019772356 0.039992537 -0.01367093 -0.013369956 -0.020551521 -0.016907113 0.025935221 -0.0038774298 -0.042136766 -0.04375573 0.0119892275 0.008237299 -0.03688419 0.034350183 0.039744135 -0.002361377 0.019251471 -0.0034001782 0.013410432 -0.011576859 -0.0023978734 -0.036100518 -0.0011702252 0.0065856306 -0.02174782 -0.018890843 0.022248479 0.013191913 0.010817406 0.044068262 -0.002270995 0.0023491853 -0.008198602 0.0014024647 0.0075246706 -0.02230037 -0.012715347 0.0035960458 -0.016913936 0.00669354
16 -0.021286618 -0.0014919818 0.033602674 -0.016891709 -0.007501251 -0.052471038 0.045891035 0.03429795 -0.020642504 0.05378685 0.11876217 0.044218265 -0.033718836 0.021201272 -0.043845434 0.00053992396 0.0058758925 0.037769783 -0.04263773 0.017224733 0.06594985 0.02478143 0.03752524 -0.021105306 -0.0024931286 -0.0146254245 -0.07476937 0.025024887 -0.013443085 -0.01905027 -0.06594922 -0.0032651033 0.024422731 -0.010346518 -0.010199804 0.008539232 0.09174175 -0.011715097 0.074923255 -0.004736529 0.005443607 0.05749977 -0.019595891 -0.080349855 -0.009592679 0.044467162 -0.019404778 -0.0021158727 0.0060991393 0.015233357 0.021825174 0.040853765 -0.00062698463 -0.024644863 0.09111866 0.008321362 0.059910074 -0.05529815 0.026818665 0.006806878 0.037322164 -0.049478445 -0.04204787 0.013049821 0.013846716 -0.015477015 0.06090046 0.07171105 -0.034923125 0.007024427 0.009970082 0.048997235 0.012528629 -0.037042383 -0.008143834 -0.020621952 0.044051517 0.026579486 -0.00620255 0.030916993 0.0097854985 -0.004741946 -0.022890747 0.06763855 0.0038115482 0.024923546 0.08565007 -0.03271065 0.034717683 0.07943648 -0.009673889 -0.031616196 -0.0511539 -0.045293625 0.055187237 -0.027960094 -0.08498642 -0.09766043 0.008824294 0.017340418 -0.060197055 0.048747208 0.054613803 -0.0071115284 0.025016712 -0.0020344623 0.011936381 -0.013650572 0.008312287 -0.055187345 0.0044897962 0.008820281 -0.0341348 -0.02508131 0.02296715 0.02313505 -0.0008129111 0.08721543 -0.007814411 0.0023033398 -0.021504061 0.0062655522 0.015011212 -0.027081398 -0.023603171 0.016942702 -0.038618073 0.011785724
12 -0.011034652 -0.0009509589 0.013153925 -0.025310542 0.0015878513 -0.049664047 0.059507187 0.02912371 -0.02919886 0.0694272 0.12165684 0.051044315 -0.044220634 0.035083372 -0.022302425 0.022433473 0.0010639796 0.045442745 -0.039827786 0.04063446 0.08319498 0.03996485 0.03479356 -0.016624337 -0.003935782 -0.01919256 -0.08284232 0.021276223 -0.0006749983 -0.010592377 -0.07561551 -0.014430841 0.043271523 -0.0048518167 -0.03310898 0.004551311 0.11451038 -0.004077859 0.09060065 -0.0005331711 0.017355751 0.055893123 0.012526412 -0.09299252 -0.034704763 0.061258327 -0.02464955 -0.019298928 0.00815576 -0.009415747 0.040524058 0.031075865 0.008165533 -0.02487477 0.09930039 0.021377757 0.0702159 -0.07168668 0.030825283 -0.019378517 0.047223315 -0.062909 -0.05716116 0.013548371 0.015643517 -0.023964098 0.07463724 0.07776432 -0.051620845 0.007957756 0.016142096 0.06465117 0.011486938 -0.014808122 -0.023069372 -0.013322604 0.020761007 0.03143709 -0.010363207 0.04740187 0.02361418 -0.008621519 -0.050676376 0.05986917 0.011666293 0.026005076 0.09107828 -0.0381299 0.047342196 0.091587424 -0.015378092 -0.034398787 -0.06563151 -0.05698575 0.06395162 -0.033873305 -0.09070176 -0.09630523 0.007691588 0.012821058 -0.043545544 0.059721 0.06803106 -0.030522382 0.007993856 0.009352654 0.03218576 -0.002774433 0.0048515843 -0.062115308 0.013184951 0.027676497 -0.043246012 -0.040432937 0.04539797 0.017395867 -0.010097232 0.10105602 -0.0036713912 -0.005310759 -0.0267431 0.013404363 -0.0038159627 -0.019379199 -0.03027955 0.008502075 -0.042186756 0.013829955
7 -0.023631668 -0.002757445 0.037294526 -0.000306126 -0.023251131 -0.057728734 0.052781694 0.03228358 -0.035136625 0.040877074 0.114966884 0.03315674 -0.033337567 0.016909834 -0.03871051 -0.0041258405 0.015894366 0.040509794 -0.035087287 0.009403499 0.0628632 0.03739952 0.03612373 -0.019125145 0.0021987308 -0.017085992 -0.07436707 0.02012639 -0.01690809 -0.026136277 -0.07468352 0.0018541847 0.021756543 -0.016179163 -0.0044333413 0.011444468 0.10476378 -0.00845555 0.06946797 -0.013658656 0.0120496 0.056616034 -0.01352646 -0.06488222 -0.002062791 0.048666365 -0.031827513 -0.009513116 0.01244534 0.018318228 0.020387981 0.036980294 -0.00044800306 -0.017891608 0.099445626 -0.0036678768 0.046587557 -0.056184668 0.01772568 0.006476815 0.04189677 -0.05388344 -0.030509498 0.010783234 0.00371068 -0.020571372 0.04877156 0.06985848 -0.026826287 -0.00072597817 0.017915579 0.046740152 -0.0031605447 -0.038010154 -0.008966508 -0.009198281 0.04373013 0.015380496 -0.0095975995 0.02589528 0.00979969 0.0077847587 -0.008530335 0.07141688 0.0076001114 0.026265452 0.08695455 -0.030327352 0.036341295 0.07900707 -0.014130718 -0.02819071 -0.050587635 -0.03407233 0.070292756 -0.009094093 -0.08651449 -0.084645 0.0108345095 0.023562701 -0.053794343 0.049548786 0.06521462 -0.0009945873 0.03195607 -0.0023021158 0.020345403 -0.0010279147 0.0061191614 -0.06400407 0.0096922815 0.0071456158 -0.03170998 -0.021398213 0.02391028 0.027367849 0.016680557 0.08412831 -0.01547653 0.0058236527 -0.0101024 0.0131188 0.012187622 -0.037121292 -0.009499366 0.006964432 -0.03667723 0.022313181
4 -0.0033802032 -0.005572608 0.037085183 -0.030984929 -0.00880771 -0.053421494 0.039515935 0.032852042 -0.0041332715 0.04946089 0.10125162 0.04121394 -0.012500789 0.0192432 -0.03359187 0.004398073 -0.005566832 0.043246664 -0.020357871 0.016676772 0.06622664 0.022496268 0.024424706 -0.027940253 -0.00095396413 -0.018791545 -0.065236 0.017182732 0.016304718 0.0010712497 -0.052105624 0.009153392 0.02399998 -0.0014719049 -0.0147643415 0.0045528514 0.08644612 0.007697529 0.06432142 -0.008508168 0.023402488 0.050428677 1.3382214e-05 -0.066746704 -0.006602852 0.04040087 -0.018789517 -0.025612917 0.008067647 0.0023992723 0.027423635 0.028142782 -0.015641838 -0.022005318 0.08045412 0.008944103 0.05136277 -0.04342877 0.021331307 -0.021043783 0.03939282 -0.051531445 -0.039785538 0.003383465 0.019197483 -0.026396487 0.04426452 0.050710328 -0.017977847 0.002930292 0.0025693167 0.04859378 0.0006774886 -0.012261552 -0.015246658 -0.023707464 0.033792306 0.028744975 -0.0011280214 0.03777664 0.002257235 -0.0051233 -0.027082859 0.045973822 0.02465395 0.029700208 0.07459618 -0.039255746 0.037807196 0.08198643 -0.025398536 -0.019639181 -0.057244822 -0.037038878 0.040433373 -0.02187606 -0.05993649 -0.081491284 0.0050729313 0.022600977 -0.04568795 0.056751076 0.047874033 -0.033196263 -0.0013036311 0.007637673 5.8125745e-05 -0.013192834 8.785873e-05 -0.03257744 0.009082386 0.017871017 -0.036675442 -0.019649237 0.01785365 0.020542081 -0.0037879054 0.07455863 -0.0066642137 0.001839744 -0.02303912 0.0006965455 -0.004073662 -0.025188785 -0.025974102 0.012487738 -0.043306015 0.013827883
