12 128
5 -0.038174167 -0.029623734 0.17600825 0.00186625 -0.11160067 -0.22329792 0.12312724 0.15868619 -0.03792306 0.057072636 0.33171162 0.07497629 -0.06756419 0.05555767 -0.16167703 -0.03298965 0.017689813 0.12299282 -0.08592865 -0.035202708 0.22521578 0.084857926 0.13010785 -0.07932063 0.030583018 -0.0348282 -0.17095242 0.09205893 -0.015988395 -0.053765647 -0.19169253 0.02465789 0.06900014 -0.039498493 -0.015658442 0.027555516 0.29292548 -0.018800499 0.18434392 -0.0833424 -0.015439185 0.1918184 -0.0835422 -0.1864317 0.046727218 0.086419545 -0.088687584 -0.0018695534 0.044656884 0.076913126 -0.0046011526 0.0815655 -0.07935636 -5.3745738e-05 0.29602876 -0.05200729 0.13982733 -0.15422702 0.003184198 0.009929387 0.10255883 -0.14934158 -0.08035244 -0.057734918 0.034510933 -0.029561622 0.08488679 0.18363065 -0.027521474 0.017453536 0.050735798 0.124568716 -0.040704325 -0.12200934 -0.009117169 -0.045855816 0.16050681 0.04416325 -0.012688782 0.032940622 -0.042232558 0.0161141 0.025784109 0.18757893 0.025131738 0.07408427 0.24304461 -0.13473524 0.08212349 0.24990487 -0.046729397 -0.058810472 -0.12934215 -0.07339228 0.20886305 -0.012438882 -0.23381923 -0.2516769 0.035205603 0.12965234 -0.22672191 0.17639074 0.14860676 -0.017783485 0.082542196 -0.016979055 -0.018714348 -0.019795125 -0.035374973 -0.15789694 0.004483822 -0.043355126 -0.12490269 0.0028969222 0.0739949 0.11891263 0.08469925 0.23224187 -0.04388261 -0.012860015 -0.044521257 -0.016150927 0.050085302 -0.14898145 -0.011816614 0.015493746 -0.12748176 0.07632422
15 -0.047286496 0.013228485 0.17411418 -0.04674403 -0.06121353 -0.19244856 0.115918115 0.13436912 0.02433817 0.107565954 0.3136924 0.12211558 -0.005110096 0.0073242267 -0.17280808 -0.016080374 -0.0005819127 0.13718379 -0.035896093 0.0013296471 0.17691728 0.0600731 0.11894104 -0.12121329 0.005270313 -0.02524213 -0.15683523 0.10211333 0.039546944 -0.0045436067 -0.13821556 0.056688964 0.0020924252 -0.009716779 -0.026490834 0.014632375 0.2332483 0.015207999 0.19134697 -0.08008176 0.033841945 0.18363921 -0.073050596 -0.20622626 0.063809514 0.10912666 -0.059942957 -0.038355757 -0.006410941 0.0522412 0.03301396 0.07349861 -0.091087066 -0.013509658 0.2535023 -0.051991142 0.12323972 -0.10586102 0.03489372 -0.051710293 0.088085614 -0.14038138 -0.07367509 -0.03150976 0.05569458 -0.06342418 0.07362006 0.15942311 -0.006220677 0.015036396 -0.019021444 0.12063808 -0.009861912 -0.06931908 -0.036271755 -0.06772582 0.16233398 0.08540019 -0.016864317 0.071050644 -0.057326674 0.021054568 -0.030003821 0.14243978 0.08020486 0.06313676 0.239359 -0.13304473 0.1020137 0.23730488 -0.07168996 -0.0849626 -0.15153526 -0.09616159 0.12252401 -0.06608656 -0.1440004 -0.23807535 0.05785353 0.10873972 -0.21146308 0.15784705 0.13037506 -0.05858431 0.021507489 -0.0082354 -0.060876425 -0.04349 -0.022464318 -0.098007634 0.0077925758 -0.010360547 -0.12487249 -0.0111200875 0.038144827 0.102224745 0.066493966 0.20438834 -0.026076458 -0.014088637 -0.0679001 -0.008089558 0.041509174 -0.11947333 -0.061352003 0.00080195884 -0.12608851 0.023303032
10 -0.04201777 -0.021274047 0.11464472 -0.033297133 -0.049854077 -0.17477319 0.12246758 0.116836354 -0.024958683 0.10146246 0.28029788 0.09538224 -0.045067582 0.040551268 -0.11605018 0.00038485508 0.022343926 0.11174475 -0.05232617 0.025445392 0.18647373 0.07060839 0.078378655 -0.082257554 0.0111915395 -0.05616211 -0.16313173 0.06783531 0.015771525 -0.039282475 -0.14270239 0.010229904 0.04923914 -0.016801327 -0.02507815 0.04239863 0.23860937 -0.010245807 0.17649248 -0.045992713 0.032937326 0.14954175 -0.024936667 -0.17574628 0.019597638 0.111006774 -0.05828261 -0.029684398 0.03017834 0.037280876 0.02675427 0.08866908 -0.04217263 -0.037675884 0.24897413 -0.022824356 0.11418537 -0.113688245 0.047680486 -0.030354774 0.104217514 -0.13573293 -0.08748691 -0.007826227 0.045161117 -0.04817957 0.094755344 0.16431272 -0.04220031 0.022196839 0.031142816 0.10782378 -0.015289501 -0.06750549 -0.01644431 -0.062326282 0.1033139 0.045757838 0.0040065777 0.08198587 -0.004457883 -0.007921106 -0.03570358 0.16578934 0.060525913 0.07233682 0.21452035 -0.11280198 0.10161672 0.20010734 -0.037575766 -0.066451624 -0.12997323 -0.074752845 0.1447401 -0.029493015 -0.18123214 -0.22415023 0.013105505 0.08912959 -0.16339664 0.16139781 0.12696673 -0.047319267 0.03827156 0.0143619925 -0.0049284254 -0.030802362 -0.008298967 -0.119212806 0.005073497 0.015000861 -0.10411971 -0.040177133 0.05757414 0.066931576 0.05300491 0.20231259 -0.03732087 -0.021565586 -0.06188556 0.019057252 0.0121963415 -0.098214366 -0.046213955 0.02992518 -0.07952393 0.05072034
3 -0.016207855 -0.01324415 0.07631763 0.001779266 -0.043066226 -0.09421824 0.040900502 0.059463635 -0.013386897 0.02223976 0.13766113 0.030683016 -0.019833438 0.013394721 -0.06541797 -0.01709127 -0.00015592789 0.049957007 -0.03709815 -0.0131684495 0.08992546 0.036759768 0.051232815 -0.030707076 0.006829706 -0.006472096 -0.07249739 0.039303347 -0.010063069 -0.017678179 -0.07762031 0.00733053 0.021246664 -0.008608114 -0.0012233917 0.0067114346 0.114088826 -0.0121436315 0.07978751 -0.024359414 -0.005010595 0.07556121 -0.030435959 -0.06884687 0.011800916 0.035190515 -0.027189596 -0.0021743313 0.016351495 0.019952038 0.007966605 0.0255674 -0.03348136 0.002818806 0.114045925 -0.01844727 0.055715468 -0.06468005 -0.005558388 0.007821953 0.046086647 -0.065011166 -0.027800057 -0.020521257 0.018208448 -0.018870248 0.03701612 0.07463229 -0.0015818655 0.0023814724 0.01624427 0.04135608 -0.023273148 -0.05272914 -0.0062972046 -0.023797682 0.06604457 0.013522391 -0.002595632 0.016261648 -0.019957831 0.005251385 0.016224649 0.079074875 0.008626524 0.03620152 0.09024702 -0.04747504 0.031127935 0.10049206 -0.017293138 -0.018110551 -0.05460701 -0.022511128 0.08523444 -0.0151919015 -0.09548413 -0.10416577 0.016876593 0.047383033 -0.09336562 0.062193006 0.064416744 -0.007725687 0.02210997 -0.009222982 -0.006026127 -0.013674465 -0.008828378 -0.063562036 0.0041507524 -0.021375049 -0.043162704 0.0032138852 0.028712234 0.047966044 0.024412848 0.09170072 -0.016690737 -0.012622863 -0.02637485 -0.0065566865 0.0212976 -0.05312619 -0.012705462 -0.00088832004 -0.054032095 0.026275543
17 -0.017823068 -0.015142859 0.049668908 -0.0108730355 -0.03410141 -0.06992711 0.034430075 0.044044286 -0.014975432 0.020779856 0.10551536 0.032036684 -0.022503851 0.010652512 -0.045678113 -0.016084911 0.005335728 0.043418813 -0.017389134 -0.01313843 0.06171419 0.017215054 0.036962282 -0.01897975 0.011577333 -0.006281106 -0.047783807 0.024384174 0.007487318 -0.019296246 -0.06019141 0.0069856606 0.01579565 -0.011621087 -0.0054214215 0.014860824 0.08454827 -0.0043078437 0.059060942 -0.03045143 0.0066401213 0.06379016 -0.029803453 -0.05507669 0.022461612 0.021988561 -0.02964895 -0.010945901 0.017395403 0.01943807 0.009820895 0.01763294 -0.020351589 0.00041257887 0.087449804 -0.012449579 0.0349325 -0.05073404 0.005905335 0.0026307001 0.03786296 -0.04087075 -0.024628252 -0.0075041153 0.004666032 -0.008707939 0.026338322 0.05712941 -0.0013090664 -0.00044933095 0.01583237 0.028521227 -0.011248514 -0.039393157 -0.008963959 -0.008239409 0.045235373 0.017755838 0.0043679965 0.021902092 -0.019198328 0.0014087353 0.011280214 0.058372755 0.010828142 0.015149598 0.0753052 -0.04550295 0.033807386 0.070506305 -0.016458789 -0.01839543 -0.0416808 -0.022490775 0.06243843 -0.0072553954 -0.068130895 -0.076335795 0.015745116 0.038172636 -0.066819526 0.060313653 0.03960507 -0.009832433 0.027693398 0.0026371093 -0.006172541 -0.015802694 -0.008399938 -0.045895856 0.009225873 -0.007961688 -0.035818346 -5.118781e-05 0.018818084 0.029214771 0.02344676 0.066652425 -0.0066443193 0.0031095534 -0.016205613 -0.00064869854 0.007536961 -0.040394653 -0.0134154 -0.0029137242 -0.0419019 0.01277743
1 -0.0062000914 -0.012517569 0.058486648 -0.00815939 -0.027830372 -0.058100767 0.029986689 0.037736136 -0.012814549 0.017715996 0.09894551 0.017563647 -0.024951013 0.01651157 -0.054383513 -0.016122727 0.0025714021 0.030864611 -0.028960157 -0.0137383 0.065629594 0.02089302 0.042769797 -0.02395385 0.004514467 -0.005034348 -0.056733996 0.023184517 -0.007809241 -0.017850641 -0.05718175 0.013222096 0.015337168 -0.005874282 0.0009459773 0.002771954 0.0898135 0.0009448374 0.054254908 -0.018537657 0.00360204 0.051938996 -0.027978312 -0.054247316 0.012716648 0.02268982 -0.017199937 -0.007665246 0.006310851 0.020360911 -0.00029111584 0.024217967 -0.025740104 -0.001218047 0.086790234 -0.013762915 0.047652356 -0.04895214 0.001441463 0.0039468915 0.037852526 -0.049050987 -0.01657714 -0.008320337 0.00791236 -0.0104004415 0.029695688 0.05133939 -0.011908012 -0.0004212041 0.012182536 0.03578106 -0.007874494 -0.035842482 -0.00456224 -0.012778402 0.05076661 0.014364427 -0.008270312 0.006027988 -0.012415086 0.009425333 0.0062339995 0.047961023 0.0040043215 0.02726051 0.0696393 -0.034682117 0.021126568 0.080843076 -0.02011636 -0.015991336 -0.041661147 -0.028169569 0.057048008 -0.007204644 -0.07177622 -0.0758836 0.005086542 0.039149497 -0.059415277 0.050432924 0.043426417 -0.0048725503 0.028644148 -0.008128227 -0.011555151 -0.010177892 -0.002365155 -0.044979423 -0.0050385464 -0.01129111 -0.029205762 -0.0073374338 0.016925355 0.041154757 0.01649346 0.07159186 -0.011665987 0.0013133017 -0.008301916 -0.0056009465 0.010001979 -0.035316125 -0.0048540356 0.008656187 -0.044853125 0.028471464
8 -0.014828138 -0.012527925 0.059849698 -0.006142919 -0.02741142 -0.07427172 0.037799858 0.052101765 -0.0011686193 0.02167949 0.11302101 0.02357851 -0.023510648 0.014422896 -0.061002657 -0.006301444 0.0059619052 0.041098367 -0.019967586 0.0026304885 0.07953004 0.024923617 0.042472713 -0.033646364 0.00025088692 -0.006991626 -0.060116507 0.029662365 -0.0008475694 -0.01805501 -0.05673969 0.006549787 0.009831179 -0.002302127 -0.0025508136 0.017493933 0.10012516 -0.0005411929 0.07223738 -0.029624956 -0.003913385 0.06688121 -0.020868883 -0.06941041 0.023768136 0.029742824 -0.01855893 -0.0053497767 0.0059241066 0.02019263 -0.0023153196 0.025252223 -0.02490483 0.0047190776 0.10457289 -0.0209686 0.048766468 -0.045804683 0.0038031368 -0.011357186 0.036143683 -0.0577358 -0.022194901 -0.019473992 0.018695695 -0.005640519 0.029672386 0.06425001 -0.010092512 0.011762283 0.014908552 0.033607345 -0.012859419 -0.032144725 -0.0059446893 -0.019305307 0.051107805 0.016702475 -0.0028155004 0.021197515 -0.016931677 0.0009321686 0.0017136191 0.06069098 0.014595755 0.021035416 0.0855756 -0.046651788 0.032999124 0.083453864 -0.012837116 -0.02787169 -0.0527921 -0.030711709 0.07061604 -0.010450626 -0.08002329 -0.08490243 0.008565103 0.045622263 -0.081294484 0.06140771 0.041228622 -0.010154929 0.026559586 0.0033686266 -0.014673766 -0.014968457 -0.015350693 -0.054999407 -0.0058617396 -0.010377417 -0.04217119 -0.009218853 0.027758935 0.0374625 0.030142125 0.07778066 -0.012627151 -0.010658133 -0.01989218 0.00078452606 0.009339703 -0.04504091 -0.007543992 0.003738606 -0.03311469 0.028473977
18 -0.0052414034 0.0015659631 0.0361395 -0.0062372484 -0.021996751 -0.04403513 0.015204791 0.03368256 -0.00603765 0.00666845 0.055645227 0.01901997 -0.012205574 0.005026853 -0.028017722 -0.0076135765 0.0010719858 0.023418043 -0.01578062 0.0022358021 0.041609824 0.006291578 0.02759215 -0.020954978 0.0046651256 -0.002071105 -0.03455354 0.014687517 0.00557551 -0.011193537 -0.038517356 0.012926024 0.0078036105 -0.009363581 0.004030316 0.008087318 0.053938903 0.005523526 0.026877128 -0.0104824575 0.00093689293 0.037407182 -0.012864893 -0.030374622 0.012629293 0.020979932 -0.017042888 -0.0058245747 0.005700451 0.014530742 -0.0015172197 0.01889253 -0.011060799 0.0056609213 0.053535115 -0.0025934323 0.023409344 -0.019420499 0.0046368567 -0.007053165 0.014997716 -0.028744001 -0.010014831 -0.009729533 0.004782599 -0.00034542108 0.02247044 0.030655518 -0.008062208 -0.00084952166 0.0027278338 0.01410862 -0.005246357 -0.023135392 -0.00085873244 -0.0045405175 0.025516113 0.0018331984 -0.0010849927 0.002508399 -0.006133493 -8.271856e-05 0.008307311 0.0324575 0.009318056 0.010685262 0.042022027 -0.017758908 0.016698511 0.03971352 -0.015542293 -0.01047345 -0.019399256 -0.009678212 0.027409542 0.0024261023 -0.03579505 -0.038605478 0.014740575 0.016438283 -0.0470622 0.035393033 0.03324971 -0.0019931542 0.018177018 -0.0035752135 0.0014745268 -0.012308166 -0.012154012 -0.031546038 -0.002156813 -0.0022970927 -0.025031107 -0.0069806008 0.018521428 0.017485652 0.020854373 0.03660562 -0.0039632376 0.0018127274 -0.006920171 -0.0046257237 0.0104770465 -0.031778 -0.006237869 4.634133e-05 -0.01700778 0.0091705965
13 -0.02207975 0.008032124 0.05572327 -0.020538528 -0.012185637 -0.06021075 0.03636539 0.044850837 0.016370164 0.045413315 0.11013101 0.0462507 0.0009290589 0.0008645388 -0.061971907 -0.004155238 -0.0008178453 0.045569014 -0.016515229 0.009995279 0.053193025 0.013543294 0.035016682 -0.042542998 -0.005617296 -0.009919961 -0.05824495 0.031975307 0.008140987 0.00017715653 -0.04219742 0.01826866 -0.0041302345 -0.004194595 -0.002848839 0.009771341 0.069671035 0.0022595022 0.066640414 -0.023476623 0.0053192796 0.06454707 -0.029366812 -0.07598288 0.023433853 0.03528195 -0.016181307 -0.0063147065 -0.005134691 0.024697024 0.013717611 0.034951676 -0.023797752 -0.015110061 0.08185983 -0.010318933 0.04574402 -0.02638267 0.020410417 -0.011972449 0.021655615 -0.043493263 -0.030270575 -0.00521647 0.024818735 -0.018311553 0.032412108 0.054948322 -0.0043416293 0.010718597 -0.011459064 0.040433858 0.005944998 -0.026202178 -0.008695869 -0.031276997 0.060939953 0.03581195 -0.003352337 0.031179884 -0.015795203 -0.00016706879 -0.014102218 0.054135006 0.024844738 0.018277235 0.084800795 -0.041976262 0.03414089 0.0758413 -0.01829332 -0.03408772 -0.054379884 -0.03817048 0.03566326 -0.029830215 -0.051559918 -0.08764544 0.019071747 0.027644454 -0.07774934 0.046427373 0.037441175 -0.015194013 0.009250475 -0.00061620347 -0.022159722 -0.021800444 -0.005952313 -0.03160465 0.0027382395 0.00029039077 -0.040891573 -0.0061244406 0.005223447 0.026828913 0.0139964335 0.067332864 -0.007454761 0.0015314257 -0.025480196 -0.00289873 0.02047304 -0.038636826 -0.024114074 0.009523267 -0.037684336 0.002881011
11 -0.0052411715 -0.002948922 0.038449172 -0.0031750794 -0.024626395 -0.051334895 0.029823026 0.036612134 -0.006163481 0.018637687 0.085565224 0.019664217 -0.019731501 0.017751224 -0.034895368 -0.00072790484 -0.0028397455 0.034432672 -0.02229857 0.002345527 0.058253635 0.024210718 0.033453688 -0.016878221 0.0013914328 -0.0027713447 -0.046505425 0.019267015 -0.0026699756 -0.0044490853 -0.052433215 0.0053854138 0.020090792 -0.008209688 -0.008926007 0.0027280813 0.08018611 0.0020173653 0.052204605 -0.022607697 -0.0074991067 0.051566675 -0.013291952 -0.0529455 0.0058399844 0.021749549 -0.0247271 -0.005350791 0.00798916 0.013249513 0.009315101 0.013709653 -0.015818069 0.0026954634 0.073381685 -0.00494199 0.04283662 -0.04155618 -0.0013553865 -0.006453351 0.020651864 -0.04123638 -0.024971234 -0.01854351 0.010690768 -0.0070748897 0.027782978 0.044428807 -0.01020047 0.005211861 0.010633287 0.037279237 -0.008969296 -0.022629442 -0.010320894 -0.00649059 0.038322404 0.019515097 -0.008530422 0.0136492485 -0.009399298 0.0032502764 -0.00074182433 0.039729793 0.0039560157 0.012678572 0.06383173 -0.033561222 0.021677265 0.06869521 -0.014868387 -0.017371295 -0.042142473 -0.027629178 0.056906 -0.010206196 -0.061912365 -0.06013732 0.014505357 0.025974113 -0.055823963 0.040250383 0.038873486 -0.010458103 0.01545092 -0.00081222923 0.0013604113 -0.0018281286 -0.015494494 -0.0428461 0.0076554087 -0.0061803153 -0.03480837 -0.0013596738 0.025148267 0.027438398 0.012571709 0.0597991 -0.005492613 0.001625632 -0.009833252 -0.0068962392 0.010616425 -0.035914335 -0.002637593 -0.002624133 -0.037768327 0.017641777
9 -0.013045075 0.0011000107 0.021196108 0.0047119805 -0.015401471 -0.029895164 0.024620283 0.0169432 -0.00822351 0.014145849 0.048132762 0.011381801 -0.00293463 0.00062732317 -0.01809943 -0.0016490895 0.00983803 0.0225723 -0.0044222646 0.0066349306 0.023089496 0.019099437 0.009146307 -0.014727796 -0.001357423 -0.010771256 -0.03186013 0.005676865 -0.0029995083 -0.0076529304 -0.028732091 0.007618734 0.00051862886 -0.007862684 0.0044005727 0.010975468 0.045785155 0.0016365846 0.028038675 -0.014064434 0.0070551047 0.02759904 -0.0012965581 -0.022516847 0.011185873 0.022362215 -0.018330807 -0.008517475 0.006070442 0.01301913 0.008317359 0.01724698 -0.0027158086 -0.007290653 0.046017885 -0.008572424 0.011864677 -0.012418574 0.005575814 -0.0047498974 0.013813937 -0.025102282 -0.008780869 -0.00064810493 0.004225631 -0.012154943 0.011082878 0.025895994 -0.0005281685 0.0007105671 0.0054119984 0.017984545 -0.009448036 -0.011800199 -0.0034845679 -0.0062483675 0.023310985 0.0060345335 -0.002798661 0.015787028 0.00076528144 0.005752934 0.0018019022 0.033198204 0.0131627275 0.010175389 0.04146776 -0.014760089 0.01869556 0.032617074 -0.0081659295 -0.01337863 -0.026886169 -0.009153808 0.032823123 0.0031992004 -0.03216216 -0.030960143 0.006635214 0.0125584975 -0.027297176 0.021007346 0.027209822 -0.0012061173 0.010901272 0.0035245486 0.0050011687 0.0014960571 -0.0035834075 -0.026102267 0.007351218 0.0045252773 -0.015699973 -0.0047430787 0.0050183227 0.00988111 0.016763395 0.030114278 -0.010940962 0.0051479246 -0.0023096998 0.008000007 0.0050567426 -0.02452791 0.0015124329 0.0004218824 -0.0106561845 0.012609733
6 -0.007508679 -0.013751178 0.065886386 -0.016193632 -0.03497515 -0.08128037 0.038939923 0.057235736 0.0017311536 0.027600016 0.117786445 0.031236708 -0.009847145 0.018287756 -0.056041602 -0.010331509 -0.0010435365 0.049384687 -0.021294259 -0.0047093825 0.07995938 0.02307796 0.033652402 -0.035473824 0.006181515 -0.018689716 -0.065084934 0.024778713 0.010981367 -0.007261017 -0.059998695 0.017052146 0.022073034 -0.009326583 -0.0016726012 0.014016463 0.09993481 0.003931091 0.06389268 -0.028446738 0.0051664845 0.069057986 -0.02092698 -0.06492518 0.020794066 0.028968735 -0.028663183 -0.013783142 0.017417049 0.025610251 0.0058033452 0.0327864 -0.03253505 -0.009974992 0.10196583 -0.01055849 0.05010591 -0.042231634 0.0072935633 -0.009876371 0.036581554 -0.05529005 -0.033514015 -0.019582337 0.021302601 -0.016580205 0.029579373 0.056347895 -0.0013093523 0.0072450917 0.010890545 0.044566195 -0.01534522 -0.032442424 -0.0046679024 -0.027577313 0.057309356 0.022679152 0.0031210713 0.025717666 -0.016162798 -0.002259044 0.0038175315 0.063405946 0.022714796 0.030585796 0.08745032 -0.051938962 0.034375053 0.09182445 -0.02379946 -0.0173877 -0.056184188 -0.026047597 0.06319515 -0.0058582164 -0.075510286 -0.09162521 0.008063863 0.043862533 -0.07916812 0.06831226 0.046190638 -0.021166299 0.015989967 0.003761631 -0.015382148 -0.016052097 -0.015170779 -0.043086108 0.004751542 -0.004047103 -0.045951795 -0.00018814651 0.016614044 0.03463447 0.020862155 0.07801772 -0.0148442825 0.0017001871 -0.020398755 -0.008410153 0.008679272 -0.05180718 -0.010882552 0.013080677 -0.046278372 0.026743274
